// Contains Weights for the layers in the Neural Network
// Had to be generated in Python with Tensorflow
// Notebook here: https://colab.research.google.com/drive/1BFWMxlakhtW39AmvQ-Sk6ZqQI8keMrNo?usp=sharing

float layer0weights[100][10] ={
-1.270836889743804932e-01,-1.997215151786804199e-01,-1.125474795699119568e-01,-1.077660173177719116e-01,2.316648364067077637e-01,-1.310117542743682861e-01,-1.440717279911041260e-01,1.220667958259582520e-01,1.829206347465515137e-01,-1.301430612802505493e-01,
-1.627439707517623901e-01,-5.668921023607254028e-02,3.088949322700500488e-01,3.553045541048049927e-02,1.217376738786697388e-01,2.152800261974334717e-01,-1.116574332118034363e-01,5.534328147768974304e-02,2.742265462875366211e-01,2.566340751945972443e-02,
1.423659026622772217e-01,1.210191845893859863e-01,4.752179086208343506e-01,-3.021502196788787842e-01,-7.616599798202514648e-01,3.184503018856048584e-01,-8.127332478761672974e-02,2.911778688430786133e-01,-1.098734512925148010e-01,2.963137924671173096e-01,
-4.811009466648101807e-01,-1.020121723413467407e-01,1.134815216064453125e+00,-7.601781934499740601e-02,-3.598079085350036621e-01,2.143733352422714233e-01,3.700965270400047302e-02,8.465258479118347168e-01,2.760465741157531738e-01,4.372580051422119141e-01,
-7.322250008583068848e-01,-4.394169151782989502e-02,6.198534369468688965e-01,3.296382352709770203e-02,-4.395500421524047852e-01,-1.900559961795806885e-01,-2.882074750959873199e-02,9.607417583465576172e-01,-4.863080978393554688e-01,3.995018601417541504e-01,
-1.232583746314048767e-01,1.009491621516644955e-03,-3.055262863636016846e-01,-2.594818472862243652e-01,-7.823259383440017700e-02,2.712301909923553467e-01,-2.787389159202575684e-01,1.214379429817199707e+00,-4.149955809116363525e-01,2.376135885715484619e-01,
-3.293192088603973389e-01,1.829853504896163940e-01,3.519904613494873047e-01,-5.380919575691223145e-01,1.243469640612602234e-01,-6.572835147380828857e-02,-4.654399454593658447e-01,4.516481161117553711e-01,-2.937499880790710449e-01,-2.064568698406219482e-01,
-4.193280935287475586e-01,-7.485463619232177734e-01,1.091190576553344727e+00,-2.226306647062301636e-01,-4.575801491737365723e-01,-1.774071604013442993e-01,6.561434268951416016e-02,6.124693751335144043e-01,3.551959693431854248e-01,-1.572791635990142822e-01,
-1.547466963529586792e-01,-2.761285006999969482e-01,2.493062168359756470e-01,-2.165619581937789917e-01,-5.278251599520444870e-03,5.589602515101432800e-02,-2.542286813259124756e-01,6.399145722389221191e-01,3.860594034194946289e-01,5.567018985748291016e-01,
6.801411509513854980e-03,-1.451733708381652832e-02,8.169376850128173828e-02,1.046884357929229736e-01,-2.234592735767364502e-01,1.720938086509704590e-02,-1.074874401092529297e-02,-1.109638661146163940e-01,9.765422344207763672e-02,2.027668058872222900e-01,
9.527114033699035645e-02,1.214221417903900146e-01,1.517153531312942505e-01,1.869605779647827148e-01,1.298981904983520508e-01,-2.344770878553390503e-01,2.483936995267868042e-01,-8.965833485126495361e-02,-4.818458983208984137e-04,-7.565889507532119751e-02,
-3.303754031658172607e-01,3.981819450855255127e-01,2.220734208822250366e-01,-8.325865864753723145e-02,-1.677491962909698486e-01,2.520966902375221252e-02,2.321054488420486450e-01,-6.079727411270141602e-01,4.093109667301177979e-01,3.772347867488861084e-01,
-2.561759650707244873e-01,3.021331727504730225e-01,3.089979887008666992e-01,-4.400931894779205322e-01,-4.765123128890991211e-02,3.026576340198516846e-01,-1.186787635087966919e-01,-3.612173199653625488e-01,2.165311425924301147e-01,3.104657307267189026e-02,
-1.897720843553543091e-01,3.249051570892333984e-01,1.646651029586791992e-01,-9.762098193168640137e-01,-2.209947407245635986e-01,3.048371374607086182e-01,5.746867135167121887e-02,8.802823722362518311e-02,1.708294451236724854e-01,-6.811472773551940918e-02,
-1.409336179494857788e-01,3.395200669765472412e-01,3.245694562792778015e-02,-2.103198468685150146e-01,-1.773629039525985718e-01,8.546409755945205688e-02,3.862227499485015869e-02,2.724259495735168457e-01,7.228054106235504150e-03,4.167211353778839111e-01,
-6.121708452701568604e-02,2.008445262908935547e-01,5.137383565306663513e-02,-1.592768579721450806e-01,-4.219105243682861328e-01,6.911680102348327637e-02,-1.660325676202774048e-01,8.920168876647949219e-02,-1.056040748953819275e-01,3.621961772441864014e-01,
-2.003849148750305176e-01,1.454700715839862823e-02,2.151762843132019043e-01,-2.226009815931320190e-01,-2.456096112728118896e-01,-3.580668941140174866e-02,-2.091329693794250488e-01,2.787873446941375732e-01,7.609876990318298340e-02,2.212144732475280762e-01,
-2.748226523399353027e-01,2.103857323527336121e-02,1.929517984390258789e-01,-1.528119444847106934e-01,-1.006527543067932129e-01,-2.010663300752639771e-01,8.079362660646438599e-02,8.067823946475982666e-02,1.364985257387161255e-01,3.516450524330139160e-01,
-3.925993740558624268e-01,-2.105821371078491211e-01,2.546412050724029541e-01,-4.990216493606567383e-01,3.303100168704986572e-02,-1.687840074300765991e-01,3.533355519175529480e-02,-9.621804580092430115e-03,3.672630190849304199e-01,-2.603935897350311279e-01,
-8.007797598838806152e-01,3.409021198749542236e-01,2.978150844573974609e-01,2.457451075315475464e-01,-2.846783399581909180e-01,-3.156921640038490295e-02,6.554461717605590820e-01,6.397715210914611816e-01,6.290616989135742188e-01,-8.860071748495101929e-02,
-1.661479771137237549e-01,8.210191726684570312e-01,-4.261320829391479492e-01,3.121216297149658203e-01,1.549916863441467285e-01,4.053960442543029785e-01,-5.151058733463287354e-02,6.546420510858297348e-03,5.805786252021789551e-01,-9.849704056978225708e-02,
1.618153415620326996e-02,5.921871662139892578e-01,1.841134428977966309e-01,3.187861293554306030e-02,-1.310480833053588867e-01,1.322903782129287720e-01,2.870933711528778076e-02,-4.401072859764099121e-01,-1.024955064058303833e-01,2.498736977577209473e-01,
-1.313048601150512695e-01,4.550521671772003174e-01,3.059087693691253662e-01,1.400212645530700684e-01,2.527232170104980469e-01,2.969061136245727539e-01,1.193876862525939941e-01,-3.329395949840545654e-01,3.518434166908264160e-01,5.596367269754409790e-02,
1.773735135793685913e-01,5.574004650115966797e-01,1.858987659215927124e-01,-1.284406185150146484e-01,2.539652287960052490e-01,5.323376655578613281e-01,1.055292263627052307e-01,-6.836328655481338501e-02,3.073668777942657471e-01,-2.542377077043056488e-02,
-2.903130464255809784e-02,2.831446826457977295e-01,1.726106554269790649e-01,-2.705611288547515869e-01,4.267261624336242676e-01,3.901267647743225098e-01,3.434808254241943359e-01,1.716839075088500977e-01,4.084283709526062012e-01,-3.436528146266937256e-01,
-2.775656878948211670e-01,1.977473869919776917e-02,-1.488986611366271973e-01,-4.347924292087554932e-01,5.598677396774291992e-01,5.070674419403076172e-01,3.256224989891052246e-01,5.108730792999267578e-01,3.077815473079681396e-01,-6.259751915931701660e-01,
-2.343681082129478455e-02,1.736235469579696655e-01,-2.615811228752136230e-01,-1.650718450546264648e-01,4.888832569122314453e-01,1.850602328777313232e-01,1.737133711576461792e-01,4.029031097888946533e-01,7.395804673433303833e-02,9.514546836726367474e-04,
5.547996163368225098e-01,1.232045590877532959e-01,1.536814272403717041e-01,4.810559749603271484e-02,4.352285861968994141e-01,2.770603001117706299e-01,1.170265227556228638e-01,2.643464803695678711e-01,3.980260491371154785e-01,3.731884658336639404e-01,
9.000645875930786133e-01,8.678743988275527954e-02,2.966675758361816406e-01,9.208270907402038574e-02,3.104488849639892578e-01,3.634227514266967773e-01,2.961603179574012756e-02,3.198713064193725586e-01,4.899303615093231201e-01,7.079285383224487305e-01,
6.636137962341308594e-01,5.598419308662414551e-01,1.724084615707397461e-01,-4.582208395004272461e-01,-1.293731331825256348e-01,-2.270233482122421265e-01,3.639320433139801025e-01,1.786153167486190796e-01,4.996254742145538330e-01,3.406393826007843018e-01,
1.471052169799804688e-01,4.326638579368591309e-01,-6.255133152008056641e-01,4.161613583564758301e-01,2.750474512577056885e-01,3.154407441616058350e-01,2.008499503135681152e-01,-2.933257818222045898e-01,-4.782978594303131104e-01,-5.979825183749198914e-02,
1.090068649500608444e-02,4.995720088481903076e-01,1.173112448304891586e-02,3.561969399452209473e-01,-1.057517901062965393e-01,-1.425203084945678711e-01,1.929462254047393799e-01,-1.934065818786621094e-01,1.303739566355943680e-02,1.307036727666854858e-01,
-1.189145967364311218e-01,8.771038800477981567e-02,2.901756763458251953e-01,4.616291522979736328e-01,3.002780973911285400e-01,-1.852033734321594238e-01,4.503541588783264160e-01,2.154116332530975342e-01,2.058290988206863403e-01,1.666428148746490479e-02,
-1.636447757482528687e-01,-3.067105412483215332e-01,7.071028929203748703e-03,5.114806890487670898e-01,6.359428167343139648e-01,-3.127943873405456543e-01,4.614060819149017334e-01,2.359431236982345581e-01,8.972868323326110840e-02,-9.755416773259639740e-03,
1.877479106187820435e-01,-1.742689609527587891e-01,2.462594956159591675e-01,8.173379898071289062e-01,2.422783821821212769e-01,-2.272217422723770142e-01,1.602882891893386841e-01,4.555671662092208862e-02,1.732470244169235229e-01,-2.078733295202255249e-01,
1.898151636123657227e-01,-1.588989607989788055e-02,-3.846927285194396973e-01,3.435499966144561768e-01,-3.637245595455169678e-01,-7.456066459417343140e-02,-1.560015678405761719e-01,-2.123802006244659424e-01,-3.469224572181701660e-01,-2.160328924655914307e-01,
2.571916580200195312e-01,2.974055111408233643e-01,-4.007548987865447998e-01,-1.548779755830764771e-01,-2.540896646678447723e-03,1.710994690656661987e-01,-2.183892130851745605e-01,-1.534468829631805420e-01,-6.761524081230163574e-01,-7.192888855934143066e-02,
2.988997995853424072e-01,3.690933585166931152e-01,-2.242461293935775757e-01,-1.095927506685256958e-01,4.693243280053138733e-02,9.284305572509765625e-02,-9.765760600566864014e-02,4.851218760013580322e-01,-9.998167157173156738e-01,-1.663168072700500488e-01,
7.255725860595703125e-01,1.984758228063583374e-01,2.037456445395946503e-02,5.598831921815872192e-02,7.966849207878112793e-02,1.088863387703895569e-01,-1.516694296151399612e-02,5.903410911560058594e-01,-8.267284035682678223e-01,-6.665748357772827148e-02,
6.820580959320068359e-01,4.512273371219635010e-01,-3.760305345058441162e-01,-2.549641728401184082e-01,-5.036574006080627441e-01,3.669850528240203857e-02,4.219525754451751709e-01,7.797405719757080078e-01,1.264501176774501801e-02,-8.149686455726623535e-02,
1.370294392108917236e-01,7.838984131813049316e-01,-8.486485481262207031e-02,8.166467547416687012e-01,6.408304572105407715e-01,-1.259225793182849884e-02,-1.095117777585983276e-01,-2.410403341054916382e-01,-1.286184787750244141e-01,-6.882523000240325928e-02,
-7.600123882293701172e-01,-2.346613705158233643e-01,-2.055469006299972534e-01,2.333168499171733856e-02,1.149400398135185242e-01,-3.743827939033508301e-01,1.715043038129806519e-01,-4.382535070180892944e-02,-7.208441197872161865e-02,-2.963173687458038330e-01,
8.866281062364578247e-02,-2.065380066633224487e-01,7.031513750553131104e-02,1.089692339301109314e-01,2.004282772541046143e-01,-2.665648460388183594e-01,1.724642515182495117e-01,9.044456481933593750e-02,-9.451518207788467407e-02,-2.655674219131469727e-01,
8.415684849023818970e-02,-7.009672373533248901e-02,4.034633189439773560e-02,-5.901237204670906067e-02,2.414934784173965454e-01,-4.831278324127197266e-01,-3.244814276695251465e-01,-1.840526163578033447e-01,-1.603224873542785645e-01,1.292409598827362061e-01,
3.844664096832275391e-01,2.889224588871002197e-01,-3.465293347835540771e-02,2.143494226038455963e-02,-4.318158030509948730e-01,-3.688316941261291504e-01,8.643240667879581451e-03,8.841625601053237915e-02,-3.741025552153587341e-02,9.454360604286193848e-02,
7.452848553657531738e-02,2.029321342706680298e-01,-3.421667590737342834e-02,1.308717392385005951e-02,-3.868215978145599365e-01,-9.729766100645065308e-02,4.850592017173767090e-01,-2.851198613643646240e-01,2.899164557456970215e-01,-1.080922409892082214e-01,
-9.746591001749038696e-02,1.784313917160034180e-01,3.090966343879699707e-01,-5.808503925800323486e-02,2.688736915588378906e-01,1.133966222405433655e-01,5.420016050338745117e-01,-4.213857054710388184e-01,3.980658650398254395e-01,-5.482716485857963562e-02,
-5.166292190551757812e-01,1.663728356361389160e-01,4.240707457065582275e-01,1.815181039273738861e-02,5.053736567497253418e-01,2.017206512391567230e-02,2.703510224819183350e-01,8.713774383068084717e-02,7.040439546108245850e-02,-3.418523445725440979e-02,
-4.006865024566650391e-01,2.776946127414703369e-01,6.435502767562866211e-01,1.687809973955154419e-01,1.977508813142776489e-01,-1.886536478996276855e-01,1.350754201412200928e-01,2.457851618528366089e-01,-4.561222791671752930e-01,-3.368275463581085205e-01,
4.013472199440002441e-01,6.078873947262763977e-02,-3.518988192081451416e-01,4.051999747753143311e-01,-6.560000181198120117e-01,-1.886497139930725098e-01,4.260456934571266174e-02,5.157762765884399414e-01,-3.245785236358642578e-01,2.847302258014678955e-01,
6.859750747680664062e-01,1.351813822984695435e-01,-3.245435059070587158e-01,1.529112309217453003e-01,1.339353173971176147e-01,-2.586820423603057861e-01,-1.652620881795883179e-01,-2.815494239330291748e-01,2.040913850069046021e-01,-1.716729402542114258e-01,
-4.289250969886779785e-01,-1.669143736362457275e-01,-6.074081659317016602e-01,-2.014445960521697998e-01,-3.705328330397605896e-02,-2.572928369045257568e-01,-2.970044612884521484e-01,-3.410690426826477051e-01,-3.287188112735748291e-01,8.011098206043243408e-02,
-8.764822036027908325e-02,-1.725298911333084106e-01,-5.415670946240425110e-02,-1.904104351997375488e-01,3.311385512351989746e-01,4.056435450911521912e-02,-3.743125498294830322e-01,-2.276811897754669189e-01,-2.624816820025444031e-02,1.755113601684570312e-01,
-3.732929378747940063e-02,1.117881201207637787e-02,2.436781376600265503e-01,-2.371656149625778198e-01,2.233807593584060669e-01,-9.186311624944210052e-03,-3.548285365104675293e-01,-1.882108747959136963e-01,6.310788542032241821e-02,2.315196692943572998e-01,
2.114142477512359619e-01,2.907906770706176758e-01,6.674479693174362183e-02,-3.491174876689910889e-01,-3.167162835597991943e-02,8.166911453008651733e-02,4.604853391647338867e-01,6.083036065101623535e-01,-2.481530457735061646e-01,3.415505290031433105e-01,
2.428371161222457886e-01,-2.938651442527770996e-01,1.040639542043209076e-02,5.073827505111694336e-02,-4.292449355125427246e-01,3.325270116329193115e-01,9.404606223106384277e-01,5.245933681726455688e-02,2.197380736470222473e-02,3.779537379741668701e-01,
6.066292896866798401e-02,-4.903866350650787354e-02,1.379190832376480103e-01,2.565944753587245941e-02,2.477848529815673828e-01,-5.741589888930320740e-02,4.153217375278472900e-02,-5.052415728569030762e-01,1.295438557863235474e-01,6.027179211378097534e-02,
-3.247952461242675781e-01,6.186548992991447449e-02,2.562370300292968750e-01,4.896733164787292480e-02,2.149553745985031128e-01,-2.177225798368453979e-01,-2.664622664451599121e-01,-3.555954992771148682e-01,2.035242170095443726e-01,1.070439964532852173e-01,
-3.533835113048553467e-01,1.657316088676452637e-01,3.797968924045562744e-01,2.494490742683410645e-01,1.522718220949172974e-01,-1.809618473052978516e-01,-2.530543208122253418e-01,-3.631024360656738281e-01,1.504377871751785278e-01,4.132651984691619873e-01,
-5.237589478492736816e-01,-5.831778421998023987e-02,1.947587430477142334e-01,5.457287654280662537e-02,-1.387064307928085327e-01,3.225721418857574463e-01,2.401232719421386719e-01,-4.600168466567993164e-01,3.936632350087165833e-02,1.178719639778137207e+00,
1.830962300300598145e-01,2.870236895978450775e-02,-6.289038062095642090e-01,2.375457435846328735e-01,3.275816887617111206e-02,-8.655998110771179199e-02,5.489944219589233398e-01,-6.843985319137573242e-01,5.789183080196380615e-02,-4.673293828964233398e-01,
-2.928789258003234863e-01,1.930407434701919556e-01,-4.440713524818420410e-01,-2.189254462718963623e-01,-1.024239882826805115e-01,4.510127380490303040e-02,-3.202039301395416260e-01,-1.321578919887542725e-01,-6.246484350413084030e-03,4.569845497608184814e-01,
-1.946722865104675293e-01,5.499039590358734131e-02,-5.249093472957611084e-02,-5.260602012276649475e-02,5.140964686870574951e-02,-4.908972606062889099e-02,-2.217533588409423828e-01,1.010011360049247742e-01,-3.150733411312103271e-01,9.932672977447509766e-02,
-3.453976511955261230e-01,-1.374791562557220459e-01,4.765799045562744141e-01,4.010821133852005005e-02,7.602412253618240356e-02,4.028118029236793518e-02,2.612273991107940674e-01,5.395807623863220215e-01,-1.864392608404159546e-01,-5.430583655834197998e-02,
9.643951803445816040e-02,-1.901046335697174072e-01,2.122989594936370850e-01,5.106225237250328064e-02,9.857403486967086792e-02,3.945233225822448730e-01,3.997012972831726074e-01,4.551156461238861084e-01,-1.815778315067291260e-01,3.256233632564544678e-01,
3.979339599609375000e-01,-1.758045256137847900e-01,2.079293876886367798e-02,-5.045254901051521301e-02,1.727892830967903137e-02,4.202260375022888184e-01,9.222420305013656616e-02,-1.714258342981338501e-01,-6.597985327243804932e-02,2.769931256771087646e-01,
7.297102361917495728e-02,2.581282258033752441e-01,1.650424301624298096e-01,-8.482089638710021973e-02,1.728929430246353149e-01,-3.857286274433135986e-02,-4.381613433361053467e-01,7.409293670207262039e-03,9.166277945041656494e-03,-5.728914216160774231e-02,
-2.444410473108291626e-01,1.395706385374069214e-01,2.461683601140975952e-01,1.578468978404998779e-01,-3.348916396498680115e-02,-2.084403485059738159e-01,-1.461966186761856079e-01,-1.484084129333496094e-01,2.779043316841125488e-01,1.698242425918579102e-01,
-9.359889626502990723e-01,-3.989457711577415466e-02,1.393602490425109863e-01,1.046841591596603394e-02,1.530897468328475952e-01,1.887230426073074341e-01,-1.506065726280212402e-01,9.400432556867599487e-02,1.438480615615844727e-01,1.917730867862701416e-01,
-3.659874945878982544e-02,-2.273373492062091827e-02,-2.001566626131534576e-02,9.147674590349197388e-02,-2.898165024816989899e-02,7.166175842285156250e-01,4.016419872641563416e-02,-1.199185475707054138e-01,-6.162269711494445801e-01,7.175596952438354492e-01,
1.968121379613876343e-01,4.289622306823730469e-01,-2.178928852081298828e-01,4.097431004047393799e-01,1.503112763166427612e-01,-1.884278804063796997e-01,-4.887628853321075439e-01,3.157612681388854980e-01,-2.256008088588714600e-01,-6.074700504541397095e-03,
-2.833682894706726074e-01,5.659117698669433594e-01,-7.858229428529739380e-02,-2.210399694740772247e-02,-1.543782502412796021e-01,1.107604503631591797e-01,3.396873129531741142e-03,9.728299826383590698e-02,2.450025081634521484e-01,2.857770621776580811e-01,
-8.773189783096313477e-02,4.178020656108856201e-01,-2.727674543857574463e-01,-8.041545003652572632e-02,-2.784512937068939209e-01,1.174064651131629944e-01,-6.803609430789947510e-02,4.249260127544403076e-01,4.151982814073562622e-02,6.542109698057174683e-02,
-2.771035023033618927e-02,1.096108406782150269e-01,2.847177386283874512e-01,3.579539805650711060e-02,-2.436797767877578735e-01,2.156727463006973267e-01,-1.299718022346496582e-01,6.002537012100219727e-01,-7.710929214954376221e-02,1.465702615678310394e-02,
1.101995930075645447e-01,-5.497273802757263184e-02,3.318777978420257568e-01,1.354665309190750122e-02,-1.652898788452148438e-01,2.723945379257202148e-01,-2.394920028746128082e-02,2.770525217056274414e-01,4.959731176495552063e-02,-1.064264327287673950e-01,
8.488460630178451538e-02,1.411152631044387817e-01,3.584845662117004395e-01,4.666498862206935883e-03,8.815325796604156494e-02,7.233431190252304077e-02,-7.075562328100204468e-02,1.700680702924728394e-01,2.357001900672912598e-01,-1.299052089452743530e-01,
-4.409206807613372803e-01,2.835013270378112793e-01,2.406928092241287231e-01,4.155815020203590393e-02,-5.080110579729080200e-02,-1.876512169837951660e-01,5.604695901274681091e-02,3.458705842494964600e-01,2.479386329650878906e-01,2.040387988090515137e-01,
-7.412639260292053223e-01,1.058575790375471115e-02,-6.368526816368103027e-02,-1.547679305076599121e-01,1.179818063974380493e-01,-2.658434025943279266e-02,2.828358113765716553e-01,3.657696247100830078e-01,3.230975866317749023e-01,2.141283154487609863e-01,
-5.132114291191101074e-01,2.498456090688705444e-02,-7.644724100828170776e-03,-1.054411157965660095e-01,3.924157619476318359e-01,4.161318540573120117e-01,3.852437436580657959e-01,8.246783018112182617e-01,2.293717414140701294e-01,1.350651383399963379e-01,
2.517014741897583008e-01,-1.036677584052085876e-01,-1.429533213376998901e-01,3.562802076339721680e-01,2.274572551250457764e-01,4.218130409717559814e-01,-5.747983455657958984e-01,2.502222061157226562e-01,-2.708699405193328857e-01,4.384740889072418213e-01,
2.319333255290985107e-01,-2.200178653001785278e-01,-7.984770834445953369e-02,-2.826921641826629639e-02,3.964203596115112305e-02,-1.934769898653030396e-01,1.246240735054016113e-01,7.035461068153381348e-02,-7.350859045982360840e-02,9.909045696258544922e-02,
-1.277212500572204590e-01,3.008295595645904541e-01,3.544747014530003071e-04,9.300626814365386963e-02,1.946176290512084961e-01,3.184809982776641846e-01,1.698562353849411011e-01,-1.669698804616928101e-01,5.596969127655029297e-01,9.939532727003097534e-02,
-3.789358213543891907e-02,3.044150769710540771e-01,5.782048031687736511e-02,-4.982632119208574295e-03,2.698474228382110596e-01,2.791558504104614258e-01,2.829188704490661621e-01,-1.103148702532052994e-02,3.468972444534301758e-01,-1.559785157442092896e-01,
1.655370742082595825e-01,2.638108432292938232e-01,-1.041107103228569031e-01,-1.070020496845245361e-01,2.810310125350952148e-01,3.280716240406036377e-01,1.104655712842941284e-01,3.569255396723747253e-02,2.428211867809295654e-01,-3.173293918371200562e-02,
2.535534203052520752e-01,4.207705557346343994e-01,8.538226038217544556e-02,3.321953862905502319e-02,2.991078197956085205e-01,1.164484471082687378e-01,2.621062695980072021e-01,4.386940300464630127e-01,5.130297690629959106e-02,1.935589611530303955e-01,
-8.196010254323482513e-03,3.554272055625915527e-01,-1.944762840867042542e-02,1.352627575397491455e-01,1.733111143112182617e-01,-1.528179943561553955e-01,3.771294355392456055e-01,2.162381261587142944e-01,-5.556842312216758728e-03,2.839820384979248047e-01,
-3.055412769317626953e-01,1.016528606414794922e-01,-2.007685750722885132e-01,1.363081112504005432e-02,3.189665079116821289e-01,-2.882130146026611328e-01,3.635998070240020752e-01,2.259676754474639893e-01,2.086168713867664337e-02,5.342941880226135254e-01,
-6.806184053421020508e-01,-4.149643704295158386e-02,-1.547632962465286255e-01,-2.164267003536224365e-01,3.579001128673553467e-01,-9.605075418949127197e-02,2.380953133106231689e-01,2.901983857154846191e-01,4.683554172515869141e-02,4.506882727146148682e-01,
-3.544186949729919434e-01,-2.923806309700012207e-01,-8.978877216577529907e-02,-2.749106884002685547e-01,6.532962918281555176e-01,9.202337265014648438e-02,2.689798772335052490e-01,1.418910175561904907e-01,2.840865552425384521e-01,2.875377237796783447e-01,
1.009673029184341431e-01,-2.931073606014251709e-01,-4.325837194919586182e-01,-9.893808513879776001e-02,-3.497672080993652344e-01,1.843964159488677979e-01,5.853982269763946533e-02,1.471270918846130371e-01,9.043055772781372070e-01,2.646237015724182129e-01,
-2.217279374599456787e-01,-3.868296742439270020e-02,-1.437550485134124756e-01,-1.247047111392021179e-01,-4.701392352581024170e-02,-2.174607068300247192e-01,6.584593653678894043e-02,-1.496477127075195312e-01,1.290695667266845703e-01,1.774069964885711670e-01,
-1.005245894193649292e-01,1.122551411390304565e-01,-2.906357944011688232e-01,4.262023791670799255e-02,3.717508614063262939e-01,-4.354487359523773193e-01,3.765144944190979004e-01,-9.048259258270263672e-02,4.485820531845092773e-01,-4.315435886383056641e-01,
-9.049034863710403442e-02,-4.089482501149177551e-02,-3.518641591072082520e-01,-1.984392479062080383e-02,8.948947787284851074e-01,1.203200593590736389e-01,1.750654727220535278e-01,-1.972896233201026917e-02,-6.256936490535736084e-02,-8.719035387039184570e-01,
2.129055857658386230e-01,1.408062428236007690e-01,-4.141471683979034424e-01,7.401765882968902588e-02,6.542530655860900879e-01,1.262980103492736816e-01,2.892512083053588867e-01,1.955117657780647278e-02,2.571185529232025146e-01,-4.340027868747711182e-01,
-1.607697457075119019e-01,1.488897800445556641e-01,-4.711115956306457520e-01,-3.601478412747383118e-02,6.101022362709045410e-01,5.631116405129432678e-02,1.759150177240371704e-01,1.998872011899948120e-01,-8.600090444087982178e-02,-8.738805353641510010e-02,
1.972089558839797974e-01,-1.089795380830764771e-01,-4.674579799175262451e-01,-1.393330655992031097e-02,4.699369072914123535e-01,2.167297750711441040e-01,3.206650167703628540e-02,-1.143439766019582748e-02,-4.375481605529785156e-02,-1.647853702306747437e-01,
2.879982888698577881e-01,-9.251630306243896484e-02,-6.655656099319458008e-01,-4.126204177737236023e-02,5.633311271667480469e-01,4.129052907228469849e-02,7.231829315423965454e-02,3.272127509117126465e-01,-2.578623294830322266e-01,-1.631176173686981201e-01,
3.643079996109008789e-01,3.338708877563476562e-01,-5.127900838851928711e-01,-1.611683517694473267e-01,5.543432831764221191e-01,-5.071640759706497192e-02,6.658592820167541504e-02,1.447342336177825928e-01,-2.116606235504150391e-01,-7.486483454704284668e-01,
-3.835801407694816589e-02,-1.731261461973190308e-01,3.408765792846679688e-02,-6.308157742023468018e-02,3.069885671138763428e-01,-5.647728443145751953e-01,5.558785200119018555e-01,-2.801323533058166504e-01,3.765382468700408936e-01,-3.368188813328742981e-02,
-4.851256310939788818e-02,-3.002610802650451660e-02,-1.104722991585731506e-01,1.054516732692718506e-01,-1.019452959299087524e-01,-1.637636423110961914e-01,1.918490529060363770e-01,-1.093233972787857056e-01,-9.324386715888977051e-03,1.572733521461486816e-01,

};
float layer0biases[] = {
5.821945071220397949e-01,
-7.194498926401138306e-02,
1.142666861414909363e-01,
1.674343645572662354e-01,
2.031203955411911011e-01,
6.372358649969100952e-02,
-1.226066052913665771e-01,
-2.049507498741149902e-01,
-3.578647077083587646e-01,
4.016127586364746094e-01,

};

float layer1weights[10][10] = {
5.974956154823303223e-01,3.538672924041748047e-01,7.215988636016845703e-01,6.288852542638778687e-02,-8.414550125598907471e-02,1.218716144561767578e+00,9.901376068592071533e-02,-2.870342135429382324e-01,6.022921204566955566e-01,-6.922448277473449707e-01,
-1.670694202184677124e-01,5.592312812805175781e-01,2.320525050163269043e-01,6.401281356811523438e-01,8.073878884315490723e-01,2.404268383979797363e-01,1.625114977359771729e-01,-5.157909989356994629e-01,4.729957506060600281e-02,5.172991156578063965e-01,
2.461103349924087524e-01,-3.455280363559722900e-01,-8.801995515823364258e-01,1.139265298843383789e+00,-3.695447146892547607e-01,5.014851093292236328e-01,4.164837766438722610e-03,2.934162914752960205e-01,-1.501562744379043579e-01,-2.323279827833175659e-01,
-1.417122840881347656e+00,-9.628899097442626953e-01,5.064457654953002930e-01,-1.539272964000701904e-01,7.722297310829162598e-02,-1.430053114891052246e-01,1.080022215843200684e+00,-9.247627109289169312e-02,6.900047510862350464e-02,6.923743337392807007e-02,
1.766739189624786377e-01,-1.421271115541458130e-01,4.786145389080047607e-01,3.673695027828216553e-01,8.638974428176879883e-01,-1.246914491057395935e-01,1.081940904259681702e-01,1.488354653120040894e-01,4.063156843185424805e-01,-8.460809588432312012e-01,
-5.799298882484436035e-01,-7.396394014358520508e-01,7.888599485158920288e-02,3.397173583507537842e-01,3.010578453540802002e-03,-4.933364987373352051e-01,7.286468148231506348e-01,3.754490613937377930e-01,1.432110071182250977e-01,6.786080598831176758e-01,
4.934897720813751221e-01,-1.122764218598604202e-02,6.781958341598510742e-01,4.426610767841339111e-01,-1.785445213317871094e-01,-2.173427790403366089e-01,-5.976558923721313477e-01,-1.227094456553459167e-01,6.947724223136901855e-01,6.440464854240417480e-01,
-5.735325813293457031e-01,6.622220873832702637e-01,5.925833582878112793e-01,1.844360977411270142e-01,2.434657067060470581e-01,1.467345654964447021e-01,-3.287431001663208008e-01,6.683676242828369141e-01,-5.730130076408386230e-01,4.246449172496795654e-01,
-5.755662918090820312e-01,1.478867411613464355e+00,4.572243988513946533e-01,-8.377360701560974121e-01,-6.192601323127746582e-01,5.055702328681945801e-01,-5.559311062097549438e-02,1.932445317506790161e-01,4.602026939392089844e-01,1.107447966933250427e-01,
6.456384658813476562e-01,-1.295542418956756592e-01,1.837601959705352783e-01,2.979853749275207520e-01,-2.548763453960418701e-01,3.389322757720947266e-01,6.413365602493286133e-01,7.806129008531570435e-02,-7.465892434120178223e-01,4.446957111358642578e-01,

}; 

float layer1biases[] = {
5.042114257812500000e-01,
4.478724673390388489e-03,
-1.527781635522842407e-01,
-3.641496598720550537e-01,
1.588570177555084229e-01,
1.758116483688354492e-01,
4.229136705398559570e-01,
1.435823738574981689e-01,
1.724867522716522217e-01,
-9.318598359823226929e-02,

};

float layer2weights[10][10] = {
2.651494145393371582e-01,1.110142827033996582e+00,-1.492878142744302750e-02,5.811771750450134277e-01,5.245074629783630371e-01,-6.866656541824340820e-01,-2.002952992916107178e-02,-9.455648660659790039e-01,1.737970262765884399e-01,1.206031441688537598e+00,
7.881655693054199219e-01,8.672327995300292969e-01,5.169805884361267090e-01,1.068388149142265320e-01,-3.631735444068908691e-01,-4.276260435581207275e-01,3.322761654853820801e-01,3.748210072517395020e-01,-2.495732158422470093e-01,-8.983888030052185059e-01,
4.232229292392730713e-01,3.488661646842956543e-01,-4.312797486782073975e-01,-3.156708478927612305e-01,5.931804180145263672e-01,6.137204170227050781e-01,7.880728244781494141e-01,8.116227984428405762e-01,2.890500128269195557e-01,2.598574757575988770e-01,
5.514304041862487793e-01,-2.224532328546047211e-02,5.483323708176612854e-02,9.965199232101440430e-01,-1.736831068992614746e-01,2.595048546791076660e-01,-5.405583977699279785e-01,3.669210374355316162e-01,-6.266694664955139160e-01,5.263447761535644531e-01,
1.826450079679489136e-01,-2.269007116556167603e-01,-2.223766595125198364e-01,3.790216520428657532e-02,7.959989309310913086e-01,-7.879717648029327393e-02,-6.361981630325317383e-01,3.273941278457641602e-01,-7.210203409194946289e-01,-2.915270030498504639e-01,
7.070657014846801758e-01,-4.943042993545532227e-01,-2.914423942565917969e-01,1.304156482219696045e-01,-2.013884112238883972e-02,1.026774719357490540e-01,6.204459667205810547e-01,-1.194485068321228027e+00,2.052136957645416260e-01,-5.158160924911499023e-01,
-9.573376774787902832e-01,1.194239631295204163e-01,9.657272100448608398e-01,-6.593586504459381104e-02,6.463772058486938477e-01,7.327411174774169922e-01,-4.066746532917022705e-01,-5.222203731536865234e-01,2.674307227134704590e-01,-4.316267669200897217e-01,
-9.284248948097229004e-01,5.398318544030189514e-02,7.716629188507795334e-03,9.547388553619384766e-01,-1.392267793416976929e-01,-7.128674387931823730e-01,6.983314752578735352e-01,8.148707449436187744e-02,-2.441175282001495361e-03,-3.856360912322998047e-02,
3.172774985432624817e-02,-1.748616993427276611e-01,7.244405150413513184e-01,-8.125500082969665527e-01,1.818691380321979523e-02,1.949047893285751343e-01,-2.418363094329833984e-01,3.643610775470733643e-01,3.712018132209777832e-01,1.035579085350036621e+00,
-3.814246952533721924e-01,5.987269282341003418e-01,3.438294529914855957e-01,-5.164747238159179688e-01,-7.996160984039306641e-01,1.018947482109069824e+00,-1.137157380580902100e-01,-2.214897722005844116e-01,5.231645703315734863e-01,1.824003159999847412e-01,

};

float layer2biases[] = {
-2.678367793560028076e-01,
3.631221950054168701e-01,
5.935526490211486816e-01,
5.844958126544952393e-02,
5.258782505989074707e-01,
-2.894965708255767822e-01,
2.183465063571929932e-01,
-3.793056607246398926e-01,
1.538788825273513794e-01,
2.613303363323211670e-01,

};


float layer3weights[10][10] = {
5.124082565307617188e-01,-3.463488519191741943e-01,-7.025020122528076172e-01,7.325923442840576172e-01,1.759333163499832153e-01,5.649528503417968750e-01,9.227123111486434937e-02,-1.699860990047454834e-01,6.539384126663208008e-01,2.859704196453094482e-01,
-2.605174481868743896e-01,7.759696841239929199e-01,3.441622257232666016e-01,2.792854979634284973e-02,2.044673264026641846e-01,-4.208689555525779724e-02,-1.922680437564849854e-01,-1.055214047431945801e+00,-6.872633844614028931e-02,-2.486989498138427734e-01,
-4.016480743885040283e-01,-9.238233566284179688e-01,6.365870237350463867e-01,5.534512996673583984e-01,-4.165960848331451416e-01,4.001510143280029297e-01,-2.674039602279663086e-01,3.209734559059143066e-01,-1.213505625724792480e+00,-6.610608100891113281e-02,
4.405342042446136475e-01,-8.542039394378662109e-01,2.159458696842193604e-01,-6.036517620086669922e-01,2.196691036224365234e-01,-1.429029107093811035e-01,8.873704075813293457e-01,-6.520027518272399902e-01,1.646379381418228149e-02,-3.043822944164276123e-01,
3.037310838699340820e-01,-8.273943662643432617e-01,-2.547332942485809326e-01,-2.430439889430999756e-01,3.375112414360046387e-01,2.926202118396759033e-01,-1.313471555709838867e+00,4.569417536258697510e-01,-7.434400320053100586e-01,2.265255004167556763e-01,
-1.504138857126235962e-01,5.346056818962097168e-01,2.611868977546691895e-01,5.235847830772399902e-01,-5.893123149871826172e-01,-2.760645449161529541e-01,-4.985013008117675781e-01,6.310713887214660645e-01,4.725460410118103027e-01,-7.593612670898437500e-01,
-1.019151926040649414e+00,5.166548490524291992e-01,-4.159108102321624756e-01,-1.107511043548583984e+00,-7.214504480361938477e-01,5.537946224212646484e-01,3.479514420032501221e-01,-5.223097801208496094e-01,-2.544542253017425537e-01,-2.731837630271911621e-01,
1.807544380426406860e-01,-8.197862505912780762e-01,5.165840387344360352e-01,-3.394323959946632385e-02,-1.032761573791503906e+00,1.415543407201766968e-01,-6.431198716163635254e-01,2.366376575082540512e-03,-1.873778179287910461e-02,2.262740135192871094e-01,
-1.083451658487319946e-01,-1.184372827410697937e-01,-6.320497393608093262e-01,-9.263198375701904297e-01,4.874873906373977661e-03,-1.191466394811868668e-02,1.682112663984298706e-01,-9.188074469566345215e-01,-1.399271726608276367e+00,-5.682973191142082214e-02,
-1.157930970191955566e+00,5.573896765708923340e-01,-1.314484179019927979e-01,-5.050160884857177734e-01,6.476099491119384766e-01,-7.760690450668334961e-01,3.386828601360321045e-01,4.367781877517700195e-01,2.156004905700683594e-01,6.747674345970153809e-01,

};

float layer3biases[] = {
-9.605721384286880493e-02,
1.476892977952957153e-01,
-1.404355019330978394e-01,
5.796603560447692871e-01,
-1.233263909816741943e-01,
-7.383325695991516113e-02,
5.328261256217956543e-01,
1.175473779439926147e-01,
-1.233715176582336426e+00,
4.410794973373413086e-01,

};
